{
  "x": 64,
  "y": 276.7999999999628,
  "r": 12,
  "gravity": 0.8,
  "lift": -16,
  "velocity": -1.6000000000000367,
  "score": 1898,
  "fitness": 0,
  "brain": {
    "input_nodes": 5,
    "hidden_nodes": 8,
    "output_nodes": 2,
    "weights_ih": {
      "rows": 8,
      "cols": 5,
      "data": [
        [
          0.3818478595463909,
          -0.6676996162906713,
          0.9909387764431715,
          -0.5527008090412318,
          -0.15847827962252997
        ],
        [
          0.674398988049048,
          -1.6130971849700515,
          0.4725998233197467,
          -0.4338703153954231,
          0.9307299119322144
        ],
        [
          -0.10898140142570367,
          0.03252345494677522,
          0.16898117656512435,
          0.2647465358091481,
          -0.698826681633414
        ],
        [
          0.7552532717741365,
          -0.6159432433053623,
          0.8666911005288683,
          -0.8977162557980136,
          -0.0035750996539860858
        ],
        [
          -2.0323921049458473,
          1.1735799836166487,
          -0.4900585930080382,
          0.008312846715573904,
          -0.09165240667882824
        ],
        [
          -0.33535579862362996,
          -0.92050649559913,
          -0.931232528209742,
          -0.9443457382637191,
          0.8625645216688574
        ],
        [
          0.045195671507084145,
          -0.1720971719074479,
          -0.8344981037799571,
          -0.8348485909093456,
          -0.07450770520132724
        ],
        [
          0.07182997960710757,
          0.8807325712571863,
          0.215599930868861,
          0.41713165153206627,
          -2.3167999300994544
        ]
      ]
    },
    "weights_ho": {
      "rows": 2,
      "cols": 8,
      "data": [
        [
          0.279201776767293,
          0.2919086850429245,
          0.2473434776267288,
          -0.872456942810413,
          -1.7333028776690316,
          -0.18040578709759325,
          0.5920003348372573,
          0.07397437281177413
        ],
        [
          0.9920491408450047,
          -1.0658591507998947,
          -0.472703623081816,
          -0.19123167014957265,
          1.2182536668461377,
          1.1052659282971813,
          0.12572062862143635,
          0.9313255428406845
        ]
      ]
    },
    "bias_h": {
      "rows": 8,
      "cols": 1,
      "data": [
        [
          -1.3441686320971329
        ],
        [
          0.5052360034212481
        ],
        [
          0.14468323742899772
        ],
        [
          0.12738936467598844
        ],
        [
          0.30137967977645763
        ],
        [
          -0.5790462505488607
        ],
        [
          -0.2615805174918513
        ],
        [
          0.43777233571487206
        ]
      ]
    },
    "bias_o": {
      "rows": 2,
      "cols": 1,
      "data": [
        [
          0.5886367692059795
        ],
        [
          -0.4531583962086849
        ]
      ]
    },
    "learning_rate": 0.1,
    "activation_function": {}
  }
}
