{
  "x": 64,
  "y": 334.4000000007287,
  "r": 12,
  "gravity": 0.8,
  "lift": -16,
  "velocity": -2.399999999999986,
  "score": 58437,
  "fitness": 0,
  "brain": {
    "input_nodes": 5,
    "hidden_nodes": 8,
    "output_nodes": 2,
    "weights_ih": {
      "rows": 8,
      "cols": 5,
      "data": [
        [
          -0.1831828704397872,
          0.8405358031503916,
          1.5007662291722212,
          1.7727592171302529,
          0.801281670981802
        ],
        [
          -0.8531741397106517,
          0.5503371017951413,
          -0.8492743711749827,
          0.7347243502417444,
          -0.7515755687284895
        ],
        [
          -0.2266929518291666,
          -0.3882359038069644,
          -0.8006303241329259,
          -0.6302311500617629,
          -0.8511930811841463
        ],
        [
          1.7705978275544185,
          1.813350517656437,
          1.5228640491728886,
          -0.31266132039346983,
          -0.5293710490937212
        ],
        [
          -0.7476940310265459,
          0.48003886911403715,
          0.40119987993721984,
          -0.33962800993365155,
          0.48364223083287333
        ],
        [
          0.03560887174106968,
          -0.5234884219942058,
          -1.9259256847638526,
          0.5932618062056452,
          0.6192064940862947
        ],
        [
          0.35107732308612505,
          -0.12035647435643876,
          -0.6893517319733197,
          -0.25866442443779225,
          -1.5770518355440148
        ],
        [
          -0.19458546212981664,
          0.07645561050059924,
          -0.03931623420346149,
          -1.3332724892057204,
          -0.02534544418792742
        ]
      ]
    },
    "weights_ho": {
      "rows": 2,
      "cols": 8,
      "data": [
        [
          0.6487565482253077,
          0.2622380622781824,
          -0.8326565063789771,
          0.8779072014930956,
          -0.5057887277893873,
          -0.673772724997725,
          -0.1347321163235947,
          -0.798352405429972
        ],
        [
          -0.23459606450123452,
          2.0564825722790445,
          -0.9909673644921679,
          -0.33773155969711055,
          -0.29186212327057154,
          -0.5666798889517033,
          0.0035996336670580664,
          0.4321994840367993
        ]
      ]
    },
    "bias_h": {
      "rows": 8,
      "cols": 1,
      "data": [
        [
          1.2749025922195623
        ],
        [
          0.4693996654179826
        ],
        [
          -0.4279574941775315
        ],
        [
          -0.41960800377038654
        ],
        [
          -0.49068962494388224
        ],
        [
          0.12858525242587063
        ],
        [
          0.12260694783717668
        ],
        [
          -1.364348086023889
        ]
      ]
    },
    "bias_o": {
      "rows": 2,
      "cols": 1,
      "data": [
        [
          0.7688232586731161
        ],
        [
          1.4611775048610252
        ]
      ]
    },
    "learning_rate": 0.1,
    "activation_function": {}
  }
}
